<?xml version="1.0"?>
<opencv_storage>
<cascade>
  <stageType>BOOST</stageType>
  <featureType>HAAR</featureType>
  <height>24</height>
  <width>24</width>
  <stageParams>
    <boostType>GAB</boostType>
    <minHitRate>9.9900001287460327e-01</minHitRate>
    <maxFalseAlarm>3.0000001192092896e-01</maxFalseAlarm>
    <weightTrimRate>9.4999999999999996e-01</weightTrimRate>
    <maxDepth>1</maxDepth>
    <maxWeakCount>100</maxWeakCount></stageParams>
  <featureParams>
    <maxCatCount>0</maxCatCount>
    <featSize>1</featSize>
    <mode>BASIC</mode></featureParams>
  <stageNum>7</stageNum>
  <stages>
    <!-- stage 0 -->
    <_>
      <maxWeakCount>2</maxWeakCount>
      <stageThreshold>9.9999997764825821e-03</stageThreshold>
      <weakClassifiers>
        <_>
          <internalNodes>
            0 -1 12 -2.0942319184541702e-02</internalNodes>
          <leafValues>
            -9.9000000953674316e-01 9.9500000476837158e-01</leafValues></_>
        <_>
          <internalNodes>
            0 -1 14 -4.5580036938190460e-02</internalNodes>
          <leafValues>
            -9.7147107124328613e-01 1.</leafValues></_></weakClassifiers></_>
    <!-- stage 1 -->
    <_>
      <maxWeakCount>2</maxWeakCount>
      <stageThreshold>3.3933915197849274e-02</stageThreshold>
      <weakClassifiers>
        <_>
          <internalNodes>
            0 -1 18 -4.0306583046913147e-02</internalNodes>
          <leafValues>
            -9.5121949911117554e-01 1.</leafValues></_>
        <_>
          <internalNodes>
            0 -1 11 1.2684467248618603e-02</internalNodes>
          <leafValues>
            -9.1660797595977783e-01 9.8515343666076660e-01</leafValues></_></weakClassifiers></_>
    <!-- stage 2 -->
    <_>
      <maxWeakCount>3</maxWeakCount>
      <stageThreshold>-6.7667627334594727e-01</stageThreshold>
      <weakClassifiers>
        <_>
          <internalNodes>
            0 -1 22 1.5526892617344856e-02</internalNodes>
          <leafValues>
            -8.8625591993331909e-01 9.9485862255096436e-01</leafValues></_>
        <_>
          <internalNodes>
            0 -1 25 1.6601749230176210e-03</internalNodes>
          <leafValues>
            -6.3674098253250122e-01 9.4527786970138550e-01</leafValues></_>
        <_>
          <internalNodes>
            0 -1 16 6.5500270575284958e-03</internalNodes>
          <leafValues>
            -8.0052709579467773e-01 8.4632068872451782e-01</leafValues></_></weakClassifiers></_>
    <!-- stage 3 -->
    <_>
      <maxWeakCount>3</maxWeakCount>
      <stageThreshold>-9.3370264768600464e-01</stageThreshold>
      <weakClassifiers>
        <_>
          <internalNodes>
            0 -1 9 -2.3648825287818909e-01</internalNodes>
          <leafValues>
            -9.4708997011184692e-01 9.2214113473892212e-01</leafValues></_>
        <_>
          <internalNodes>
            0 -1 15 1.9146315753459930e-02</internalNodes>
          <leafValues>
            -8.5304170846939087e-01 9.5307236909866333e-01</leafValues></_>
        <_>
          <internalNodes>
            0 -1 5 -2.8787994757294655e-02</internalNodes>
          <leafValues>
            -9.4070714712142944e-01 8.6642903089523315e-01</leafValues></_></weakClassifiers></_>
    <!-- stage 4 -->
    <_>
      <maxWeakCount>5</maxWeakCount>
      <stageThreshold>-4.8803660273551941e-01</stageThreshold>
      <weakClassifiers>
        <_>
          <internalNodes>
            0 -1 0 -1.2092839181423187e-01</internalNodes>
          <leafValues>
            9.5408165454864502e-01 -8.3653843402862549e-01</leafValues></_>
        <_>
          <internalNodes>
            0 -1 17 7.0773683488368988e-02</internalNodes>
          <leafValues>
            -6.3392269611358643e-01 9.6361762285232544e-01</leafValues></_>
        <_>
          <internalNodes>
            0 -1 7 -9.2572212219238281e-02</internalNodes>
          <leafValues>
            7.2239804267883301e-01 -9.1452032327651978e-01</leafValues></_>
        <_>
          <internalNodes>
            0 -1 19 -1.6315706307068467e-03</internalNodes>
          <leafValues>
            -5.2092301845550537e-01 8.9317601919174194e-01</leafValues></_>
        <_>
          <internalNodes>
            0 -1 3 -5.2969735115766525e-02</internalNodes>
          <leafValues>
            7.8220272064208984e-01 -6.3314956426620483e-01</leafValues></_></weakClassifiers></_>
    <!-- stage 5 -->
    <_>
      <maxWeakCount>6</maxWeakCount>
      <stageThreshold>-6.1458474397659302e-01</stageThreshold>
      <weakClassifiers>
        <_>
          <internalNodes>
            0 -1 21 -2.7373380959033966e-02</internalNodes>
          <leafValues>
            -8.2608693838119507e-01 7.5854212045669556e-01</leafValues></_>
        <_>
          <internalNodes>
            0 -1 1 6.9654628634452820e-02</internalNodes>
          <leafValues>
            -8.9216297864913940e-01 5.8269900083541870e-01</leafValues></_>
        <_>
          <internalNodes>
            0 -1 26 -6.1764447018504143e-03</internalNodes>
          <leafValues>
            5.7450485229492188e-01 -8.5768669843673706e-01</leafValues></_>
        <_>
          <internalNodes>
            0 -1 24 1.9215811043977737e-02</internalNodes>
          <leafValues>
            -5.7531690597534180e-01 7.6099413633346558e-01</leafValues></_>
        <_>
          <internalNodes>
            0 -1 8 -2.5586196780204773e-01</internalNodes>
          <leafValues>
            -7.5760161876678467e-01 5.2777624130249023e-01</leafValues></_>
        <_>
          <internalNodes>
            0 -1 4 7.2831744328141212e-03</internalNodes>
          <leafValues>
            -6.5739136934280396e-01 5.3403061628341675e-01</leafValues></_></weakClassifiers></_>
    <!-- stage 6 -->
    <_>
      <maxWeakCount>6</maxWeakCount>
      <stageThreshold>-2.7971807122230530e-01</stageThreshold>
      <weakClassifiers>
        <_>
          <internalNodes>
            0 -1 2 -3.0140984803438187e-02</internalNodes>
          <leafValues>
            8.6432158946990967e-01 -7.1287131309509277e-01</leafValues></_>
        <_>
          <internalNodes>
            0 -1 13 1.1005121283233166e-02</internalNodes>
          <leafValues>
            -8.2248646020889282e-01 7.5488877296447754e-01</leafValues></_>
        <_>
          <internalNodes>
            0 -1 10 -2.3820251226425171e-01</internalNodes>
          <leafValues>
            -7.8364568948745728e-01 5.9519350528717041e-01</leafValues></_>
        <_>
          <internalNodes>
            0 -1 23 -4.5163007453083992e-03</internalNodes>
          <leafValues>
            9.5026093721389771e-01 -4.3617749214172363e-01</leafValues></_>
        <_>
          <internalNodes>
            0 -1 6 -3.3468175679445267e-02</internalNodes>
          <leafValues>
            4.6845662593841553e-01 -9.8820680379867554e-01</leafValues></_>
        <_>
          <internalNodes>
            0 -1 20 -7.8739598393440247e-03</internalNodes>
          <leafValues>
            -6.7522150278091431e-01 6.2816703319549561e-01</leafValues></_></weakClassifiers></_></stages>
  <features>
    <_>
      <rects>
        <_>
          0 1 16 16 -1.</_>
        <_>
          8 1 8 16 2.</_></rects>
      <tilted>0</tilted></_>
    <_>
      <rects>
        <_>
          0 2 18 22 -1.</_>
        <_>
          0 2 9 11 2.</_>
        <_>
          9 13 9 11 2.</_></rects>
      <tilted>0</tilted></_>
    <_>
      <rects>
        <_>
          0 4 8 18 -1.</_>
        <_>
          4 4 4 18 2.</_></rects>
      <tilted>0</tilted></_>
    <_>
      <rects>
        <_>
          0 6 18 4 -1.</_>
        <_>
          9 6 9 4 2.</_></rects>
      <tilted>0</tilted></_>
    <_>
      <rects>
        <_>
          0 8 12 4 -1.</_>
        <_>
          0 8 6 2 2.</_>
        <_>
          6 10 6 2 2.</_></rects>
      <tilted>0</tilted></_>
    <_>
      <rects>
        <_>
          0 12 6 3 -1.</_>
        <_>
          0 13 6 1 2.</_></rects>
      <tilted>0</tilted></_>
    <_>
      <rects>
        <_>
          1 0 18 1 -1.</_>
        <_>
          7 0 6 1 2.</_></rects>
      <tilted>0</tilted></_>
    <_>
      <rects>
        <_>
          2 0 21 8 -1.</_>
        <_>
          2 4 21 4 2.</_></rects>
      <tilted>0</tilted></_>
    <_>
      <rects>
        <_>
          2 9 18 13 -1.</_>
        <_>
          8 9 6 13 2.</_></rects>
      <tilted>0</tilted></_>
    <_>
      <rects>
        <_>
          2 13 18 10 -1.</_>
        <_>
          8 13 6 10 2.</_></rects>
      <tilted>0</tilted></_>
    <_>
      <rects>
        <_>
          2 15 21 9 -1.</_>
        <_>
          9 15 7 9 2.</_></rects>
      <tilted>0</tilted></_>
    <_>
      <rects>
        <_>
          2 16 13 8 -1.</_>
        <_>
          2 20 13 4 2.</_></rects>
      <tilted>0</tilted></_>
    <_>
      <rects>
        <_>
          6 3 3 3 -1.</_>
        <_>
          7 3 1 3 2.</_></rects>
      <tilted>0</tilted></_>
    <_>
      <rects>
        <_>
          6 7 8 8 -1.</_>
        <_>
          6 11 8 4 2.</_></rects>
      <tilted>0</tilted></_>
    <_>
      <rects>
        <_>
          8 0 3 7 -1.</_>
        <_>
          9 0 1 7 2.</_></rects>
      <tilted>0</tilted></_>
    <_>
      <rects>
        <_>
          8 0 16 8 -1.</_>
        <_>
          16 0 8 8 2.</_></rects>
      <tilted>0</tilted></_>
    <_>
      <rects>
        <_>
          8 7 6 6 -1.</_>
        <_>
          8 10 6 3 2.</_></rects>
      <tilted>0</tilted></_>
    <_>
      <rects>
        <_>
          10 0 14 19 -1.</_>
        <_>
          17 0 7 19 2.</_></rects>
      <tilted>0</tilted></_>
    <_>
      <rects>
        <_>
          10 2 3 10 -1.</_>
        <_>
          11 2 1 10 2.</_></rects>
      <tilted>0</tilted></_>
    <_>
      <rects>
        <_>
          10 6 1 3 -1.</_>
        <_>
          10 7 1 1 2.</_></rects>
      <tilted>0</tilted></_>
    <_>
      <rects>
        <_>
          11 5 6 2 -1.</_>
        <_>
          13 5 2 2 2.</_></rects>
      <tilted>0</tilted></_>
    <_>
      <rects>
        <_>
          13 5 3 11 -1.</_>
        <_>
          14 5 1 11 2.</_></rects>
      <tilted>0</tilted></_>
    <_>
      <rects>
        <_>
          16 0 8 17 -1.</_>
        <_>
          20 0 4 17 2.</_></rects>
      <tilted>0</tilted></_>
    <_>
      <rects>
        <_>
          16 15 4 7 -1.</_>
        <_>
          18 15 2 7 2.</_></rects>
      <tilted>0</tilted></_>
    <_>
      <rects>
        <_>
          18 14 6 10 -1.</_>
        <_>
          21 14 3 10 2.</_></rects>
      <tilted>0</tilted></_>
    <_>
      <rects>
        <_>
          20 11 4 8 -1.</_>
        <_>
          22 11 2 8 2.</_></rects>
      <tilted>0</tilted></_>
    <_>
      <rects>
        <_>
          22 0 1 3 -1.</_>
        <_>
          22 1 1 1 2.</_></rects>
      <tilted>0</tilted></_></features></cascade>
</opencv_storage>
