<?xml version="1.0"?>
<opencv_storage>
<cascade>
  <stageType>BOOST</stageType>
  <featureType>HAAR</featureType>
  <height>24</height>
  <width>24</width>
  <stageParams>
    <boostType>GAB</boostType>
    <minHitRate>9.9900001287460327e-01</minHitRate>
    <maxFalseAlarm>3.0000001192092896e-01</maxFalseAlarm>
    <weightTrimRate>9.4999999999999996e-01</weightTrimRate>
    <maxDepth>1</maxDepth>
    <maxWeakCount>100</maxWeakCount></stageParams>
  <featureParams>
    <maxCatCount>0</maxCatCount>
    <featSize>1</featSize>
    <mode>BASIC</mode></featureParams>
  <stageNum>7</stageNum>
  <stages>
    <!-- stage 0 -->
    <_>
      <maxWeakCount>1</maxWeakCount>
      <stageThreshold>1.</stageThreshold>
      <weakClassifiers>
        <_>
          <internalNodes>
            0 -1 0 -1.4271910488605499e-01</internalNodes>
          <leafValues>
            -1. 1.</leafValues></_></weakClassifiers></_>
    <!-- stage 1 -->
    <_>
      <maxWeakCount>1</maxWeakCount>
      <stageThreshold>1.</stageThreshold>
      <weakClassifiers>
        <_>
          <internalNodes>
            0 -1 1 -1.0360319912433624e-01</internalNodes>
          <leafValues>
            1. -1.</leafValues></_></weakClassifiers></_>
    <!-- stage 2 -->
    <_>
      <maxWeakCount>1</maxWeakCount>
      <stageThreshold>1.</stageThreshold>
      <weakClassifiers>
        <_>
          <internalNodes>
            0 -1 6 5.1186036318540573e-02</internalNodes>
          <leafValues>
            -1. 1.</leafValues></_></weakClassifiers></_>
    <!-- stage 3 -->
    <_>
      <maxWeakCount>1</maxWeakCount>
      <stageThreshold>1.</stageThreshold>
      <weakClassifiers>
        <_>
          <internalNodes>
            0 -1 2 -4.2957830429077148e-01</internalNodes>
          <leafValues>
            -1. 1.</leafValues></_></weakClassifiers></_>
    <!-- stage 4 -->
    <_>
      <maxWeakCount>2</maxWeakCount>
      <stageThreshold>3.4687872976064682e-03</stageThreshold>
      <weakClassifiers>
        <_>
          <internalNodes>
            0 -1 3 4.2571914382278919e-03</internalNodes>
          <leafValues>
            -9.8675495386123657e-01 1.</leafValues></_>
        <_>
          <internalNodes>
            0 -1 4 6.2990961596369743e-03</internalNodes>
          <leafValues>
            -1. 9.9022376537322998e-01</leafValues></_></weakClassifiers></_>
    <!-- stage 5 -->
    <_>
      <maxWeakCount>2</maxWeakCount>
      <stageThreshold>2.0625453907996416e-03</stageThreshold>
      <weakClassifiers>
        <_>
          <internalNodes>
            0 -1 8 -5.5079132318496704e-02</internalNodes>
          <leafValues>
            9.8989897966384888e-01 -9.6052628755569458e-01</leafValues></_>
        <_>
          <internalNodes>
            0 -1 9 -2.1956030279397964e-02</internalNodes>
          <leafValues>
            -9.7477352619171143e-01 9.6258884668350220e-01</leafValues></_></weakClassifiers></_>
    <!-- stage 6 -->
    <_>
      <maxWeakCount>2</maxWeakCount>
      <stageThreshold>-1.1457054875791073e-02</stageThreshold>
      <weakClassifiers>
        <_>
          <internalNodes>
            0 -1 5 -2.5271872058510780e-02</internalNodes>
          <leafValues>
            9.8994976282119751e-01 -9.7350990772247314e-01</leafValues></_>
        <_>
          <internalNodes>
            0 -1 7 -5.6920456700026989e-03</internalNodes>
          <leafValues>
            9.6205288171768188e-01 -9.7446465492248535e-01</leafValues></_></weakClassifiers></_></stages>
  <features>
    <_>
      <rects>
        <_>
          0 1 9 7 -1.</_>
        <_>
          3 1 3 7 2.</_></rects>
      <tilted>0</tilted></_>
    <_>
      <rects>
        <_>
          0 1 16 6 -1.</_>
        <_>
          8 1 8 6 2.</_></rects>
      <tilted>0</tilted></_>
    <_>
      <rects>
        <_>
          0 6 23 15 -1.</_>
        <_>
          0 11 23 5 2.</_></rects>
      <tilted>0</tilted></_>
    <_>
      <rects>
        <_>
          0 19 16 4 -1.</_>
        <_>
          8 19 8 4 2.</_></rects>
      <tilted>0</tilted></_>
    <_>
      <rects>
        <_>
          2 20 14 2 -1.</_>
        <_>
          9 20 7 2 2.</_></rects>
      <tilted>0</tilted></_>
    <_>
      <rects>
        <_>
          7 10 8 9 -1.</_>
        <_>
          11 10 4 9 2.</_></rects>
      <tilted>0</tilted></_>
    <_>
      <rects>
        <_>
          10 0 14 5 -1.</_>
        <_>
          17 0 7 5 2.</_></rects>
      <tilted>0</tilted></_>
    <_>
      <rects>
        <_>
          10 11 6 5 -1.</_>
        <_>
          13 11 3 5 2.</_></rects>
      <tilted>0</tilted></_>
    <_>
      <rects>
        <_>
          14 12 8 12 -1.</_>
        <_>
          14 12 4 6 2.</_>
        <_>
          18 18 4 6 2.</_></rects>
      <tilted>0</tilted></_>
    <_>
      <rects>
        <_>
          19 6 2 15 -1.</_>
        <_>
          19 11 2 5 2.</_></rects>
      <tilted>0</tilted></_></features></cascade>
</opencv_storage>
